<?xml version="1.0"?>
<opencv_storage>
<closed-all-eyes-20x20-7000samples-opencv110-titled-990 type_id="opencv-haar-classifier">
  <size>
    20 20</size>
  <stages>
    <_>
      <!-- stage 0 -->
      <trees>
        <_>
          <!-- tree 0 -->
          <_>
            <!-- root node -->
            <feature>
              <rects>
                <_>
                  5 12 9 6 -1.</_>
                <_>
                  5 15 9 3 2.</_></rects>
              <tilted>0</tilted></feature>
            <threshold>-0.0559602603316307</threshold>
            <left_val>0.8092014789581299</left_val>
            <right_val>-0.7983754277229309</right_val></_></_>
        <_>
          <!-- tree 1 -->
          <_>
            <!-- root node -->
            <feature>
              <rects>
                <_>
                  1 16 6 4 -1.</_>
                <_>
                  1 18 6 2 2.</_></rects>
              <tilted>0</tilted></feature>
            <threshold>8.7734991684556007e-003</threshold>
            <left_val>-0.6529679894447327</left_val>
            <right_val>0.5669186711311340</right_val></_></_>
        <_>
          <!-- tree 2 -->
          <_>
            <!-- root node -->
            <feature>
              <rects>
                <_>
                  3 0 13 12 -1.</_>
                <_>
                  3 3 13 6 2.</_></rects>
              <tilted>0</tilted></feature>
            <threshold>-0.0692723989486694</threshold>
            <left_val>0.6634610891342163</left_val>
            <right_val>-0.4634518027305603</right_val></_></_>
        <_>
          <!-- tree 3 -->
          <_>
            <!-- root node -->
            <feature>
              <rects>
                <_>
                  12 10 8 2 -1.</_>
                <_>
                  14 12 4 2 2.</_></rects>
              <tilted>1</tilted></feature>
            <threshold>-0.0132211595773697</threshold>
            <left_val>0.4739136099815369</left_val>
            <right_val>-0.5746185183525085</right_val></_></_>
        <_>
          <!-- tree 4 -->
          <_>
            <!-- root node -->
            <feature>
              <rects>
                <_>
                  0 10 10 10 -1.</_>
                <_>
                  0 10 5 5 2.</_>
                <_>
                  5 15 5 5 2.</_></rects>
              <tilted>0</tilted></feature>
            <threshold>-0.0322489701211452</threshold>
            <left_val>0.4677020907402039</left_val>
            <right_val>-0.3330335021018982</right_val></_></_>
        <_>
          <!-- tree 5 -->
          <_>
            <!-- root node -->
            <feature>
              <rects>
                <_>
                  6 2 9 9 -1.</_>
                <_>
                  6 5 9 3 3.</_></rects>
              <tilted>0</tilted></feature>
            <threshold>0.0480712093412876</threshold>
            <left_val>-0.2841264009475708</left_val>
            <right_val>0.5742974877357483</right_val></_></_></trees>
      <stage_threshold>-1.4474140405654907</stage_threshold>
      <parent>-1</parent>
      <next>-1</next></_>
    <_>
      <!-- stage 1 -->
      <trees>
        <_>
          <!-- tree 0 -->
          <_>
            <!-- root node -->
            <feature>
              <rects>
                <_>
                  5 12 9 6 -1.</_>
                <_>
                  5 15 9 3 2.</_></rects>
              <tilted>0</tilted></feature>
            <threshold>-0.0760622024536133</threshold>
            <left_val>0.7008492946624756</left_val>
            <right_val>-0.6900491714477539</right_val></_></_>
        <_>
          <!-- tree 1 -->
          <_>
            <!-- root node -->
            <feature>
              <rects>
                <_>
                  1 18 19 2 -1.</_>
                <_>
                  1 19 19 1 2.</_></rects>
              <tilted>0</tilted></feature>
            <threshold>5.1054679788649082e-003</threshold>
            <left_val>-0.7161843180656433</left_val>
            <right_val>0.4969828128814697</right_val></_></_>
        <_>
          <!-- tree 2 -->
          <_>
            <!-- root node -->
            <feature>
              <rects>
                <_>
                  4 14 2 4 -1.</_>
                <_>
                  4 14 2 2 2.</_></rects>
              <tilted>1</tilted></feature>
            <threshold>-7.2610829956829548e-003</threshold>
            <left_val>0.4045529067516327</left_val>
            <right_val>-0.6769884824752808</right_val></_></_>
        <_>
          <!-- tree 3 -->
          <_>
            <!-- root node -->
            <feature>
              <rects>
                <_>
                  14 10 6 8 -1.</_>
                <_>
                  14 10 3 4 2.</_>
                <_>
                  17 14 3 4 2.</_></rects>
              <tilted>0</tilted></feature>
            <threshold>7.8449193388223648e-003</threshold>
            <left_val>-0.5158653259277344</left_val>
            <right_val>0.3849245011806488</right_val></_></_>
        <_>
          <!-- tree 4 -->
          <_>
            <!-- root node -->
            <feature>
              <rects>
                <_>
                  8 0 5 12 -1.</_>
                <_>
                  8 3 5 6 2.</_></rects>
              <tilted>0</tilted></feature>
            <threshold>-0.0343765206634998</threshold>
            <left_val>0.4417839944362640</left_val>
            <right_val>-0.4491713941097260</right_val></_></_>
        <_>
          <!-- tree 5 -->
          <_>
            <!-- root node -->
            <feature>
              <rects>
                <_>
                  15 14 5 6 -1.</_>
                <_>
                  15 17 5 3 2.</_></rects>
              <tilted>0</tilted></feature>
            <threshold>8.0606562551110983e-004</threshold>
            <left_val>-0.5991591811180115</left_val>
            <right_val>0.2935397028923035</right_val></_></_>
        <_>
          <!-- tree 6 -->
          <_>
            <!-- root node -->
            <feature>
              <rects>
                <_>
                  5 2 12 12 -1.</_>
                <_>
                  5 6 12 4 3.</_></rects>
              <tilted>0</tilted></feature>
            <threshold>0.0999673306941986</threshold>
            <left_val>-0.3296177089214325</left_val>
            <right_val>0.4933440983295441</right_val></_></_>
        <_>
          <!-- tree 7 -->
          <_>
            <!-- root node -->
            <feature>
              <rects>
                <_>
                  13 7 1 9 -1.</_>
                <_>
                  10 10 1 3 3.</_></rects>
              <tilted>1</tilted></feature>
            <threshold>2.1765059791505337e-003</threshold>
            <left_val>-0.6521944999694824</left_val>
            <right_val>0.2520250976085663</right_val></_></_>
        <_>
          <!-- tree 8 -->
          <_>
            <!-- root node -->
            <feature>
              <rects>
                <_>
                  14 1 6 16 -1.</_>
                <_>
                  17 1 3 16 2.</_></rects>
              <tilted>0</tilted></feature>
            <threshold>0.0133537398651242</threshold>
            <left_val>-0.5027486085891724</left_val>
            <right_val>0.3495278060436249</right_val></_></_>
        <_>
          <!-- tree 9 -->
          <_>
            <!-- root node -->
            <feature>
              <rects>
                <_>
                  14 11 2 1 -1.</_>
                <_>
                  14 11 1 1 2.</_></rects>
              <tilted>1</tilted></feature>
            <threshold>4.9003640015143901e-005</threshold>
            <left_val>-0.6469812989234924</left_val>
            <right_val>0.3172506093978882</right_val></_></_>
        <_>
          <!-- tree 10 -->
          <_>
            <!-- root node -->
            <feature>
              <rects>
                <_>
                  0 16 5 4 -1.</_>
                <_>
                  0 18 5 2 2.</_></rects>
              <tilted>0</tilted></feature>
            <threshold>1.3902450155001134e-004</threshold>
            <left_val>-0.7826722860336304</left_val>
            <right_val>0.2005428969860077</right_val></_></_></trees>
      <stage_threshold>-1.7194850444793701</stage_threshold>
      <parent>0</parent>
      <next>-1</next></_>
    <_>
      <!-- stage 2 -->
      <trees>
        <_>
          <!-- tree 0 -->
          <_>
            <!-- root node -->
            <feature>
              <rects>
                <_>
                  5 14 11 6 -1.</_>
                <_>
                  5 16 11 2 3.</_></rects>
              <tilted>0</tilted></feature>
            <threshold>-0.0842526629567146</threshold>
            <left_val>0.7011169195175171</left_val>
            <right_val>-0.5717399120330811</right_val></_></_>
        <_>
          <!-- tree 1 -->
          <_>
            <!-- root node -->
            <feature>
              <rects>
                <_>
                  10 11 10 8 -1.</_>
                <_>
                  10 11 5 4 2.</_>
                <_>
                  15 15 5 4 2.</_></rects>
              <tilted>0</tilted></feature>
            <threshold>0.0356601811945438</threshold>
            <left_val>-0.5322142243385315</left_val>
            <right_val>0.4763500094413757</right_val></_></_>
        <_>
          <!-- tree 2 -->
          <_>
            <!-- root node -->
            <feature>
              <rects>
                <_>
                  5 0 9 6 -1.</_>
                <_>
                  5 3 9 3 2.</_></rects>
              <tilted>0</tilted></feature>
            <threshold>-0.0566784404218197</threshold>
            <left_val>0.5721552968025208</left_val>
            <right_val>-0.3576448857784271</right_val></_></_>
        <_>
          <!-- tree 3 -->
          <_>
            <!-- root node -->
            <feature>
              <rects>
                <_>
                  8 10 2 8 -1.</_>
                <_>
                  6 12 2 4 2.</_></rects>
              <tilted>1</tilted></feature>
            <threshold>-0.0180681701749563</threshold>
            <left_val>0.3311895132064819</left_val>
            <right_val>-0.5403056740760803</right_val></_></_>
        <_>
          <!-- tree 4 -->
          <_>
            <!-- root node -->
            <feature>
              <rects>
                <_>
                  3 8 17 9 -1.</_>
                <_>
                  3 11 17 3 3.</_></rects>
              <tilted>0</tilted></feature>
            <threshold>0.0355653204023838</threshold>
            <left_val>-0.5402535796165466</left_val>
            <right_val>0.2040442973375320</right_val></_></_>
        <_>
          <!-- tree 5 -->
          <_>
            <!-- root node -->
            <feature>
              <rects>
                <_>
                  16 14 4 4 -1.</_>
                <_>
                  18 14 2 4 2.</_></rects>
              <tilted>0</tilted></feature>
            <threshold>2.1042670123279095e-003</threshold>
            <left_val>-0.4869180023670197</left_val>
            <right_val>0.2541323900222778</right_val></_></_>
        <_>
          <!-- tree 6 -->
          <_>
            <!-- root node -->
            <feature>
              <rects>
                <_>
                  5 13 9 6 -1.</_>
                <_>
                  5 15 9 2 3.</_></rects>
              <tilted>0</tilted></feature>
            <threshold>0.0343167781829834</threshold>
            <left_val>-0.1883400976657867</left_val>
            <right_val>0.7432147264480591</right_val></_></_>
        <_>
          <!-- tree 7 -->
          <_>
            <!-- root node -->
            <feature>
              <rects>
                <_>
                  15 16 5 4 -1.</_>
                <_>
                  15 18 5 2 2.</_></rects>
              <tilted>0</tilted></feature>
            <threshold>6.1510669183917344e-005</threshold>
            <left_val>-0.6888542175292969</left_val>
            <right_val>0.2209219038486481</right_val></_></_>
        <_>
          <!-- tree 8 -->
          <_>
            <!-- root node -->
            <feature>
              <rects>
                <_>
                  11 11 4 1 -1.</_>
                <_>
                  11 11 2 1 2.</_></rects>
              <tilted>1</tilted></feature>
            <threshold>2.5239419192075729e-003</threshold>
            <left_val>-0.6579421758651733</left_val>
            <right_val>0.2115859985351563</right_val></_></_>
        <_>
          <!-- tree 9 -->
          <_>
            <!-- root node -->
            <feature>
              <rects>
                <_>
                  0 16 7 4 -1.</_>
                <_>
                  0 18 7 2 2.</_></rects>
              <tilted>0</tilted></feature>
            <threshold>2.1223479416221380e-004</threshold>
            <left_val>-0.8371871113777161</left_val>
            <right_val>0.1533531993627548</right_val></_></_>
        <_>
          <!-- tree 10 -->
          <_>
            <!-- root node -->
            <feature>
              <rects>
                <_>
                  5 11 3 2 -1.</_>
                <_>
                  5 11 3 1 2.</_></rects>
              <tilted>1</tilted></feature>
            <threshold>2.9172140784794465e-005</threshold>
            <left_val>-0.7249277234077454</left_val>
            <right_val>0.1204949021339417</right_val></_></_>
        <_>
          <!-- tree 11 -->
          <_>
            <!-- root node -->
            <feature>
              <rects>
                <_>
                  0 18 7 2 -1.</_>
                <_>
                  0 19 7 1 2.</_></rects>
              <tilted>0</tilted></feature>
            <threshold>8.1131373008247465e-005</threshold>
            <left_val>-0.7417513132095337</left_val>
            <right_val>0.1830928027629852</right_val></_></_>
        <_>
          <!-- tree 12 -->
          <_>
            <!-- root node -->
            <feature>
              <rects>
                <_>
                  16 10 2 3 -1.</_>
                <_>
                  16 10 1 3 2.</_></rects>
              <tilted>1</tilted></feature>
            <threshold>2.6258299476467073e-004</threshold>
            <left_val>-0.7047806978225708</left_val>
            <right_val>0.1879874020814896</right_val></_></_></trees>
      <stage_threshold>-1.6177569627761841</stage_threshold>
      <parent>1</parent>
      <next>-1</next></_>
    <_>
      <!-- stage 3 -->
      <trees>
        <_>
          <!-- tree 0 -->
          <_>
            <!-- root node -->
            <feature>
              <rects>
                <_>
                  7 14 6 4 -1.</_>
                <_>
                  7 16 6 2 2.</_></rects>
              <tilted>0</tilted></feature>
            <threshold>-0.0313933193683624</threshold>
            <left_val>0.6202775239944458</left_val>
            <right_val>-0.5428922772407532</right_val></_></_>
        <_>
          <!-- tree 1 -->
          <_>
            <!-- root node -->
            <feature>
              <rects>
                <_>
                  0 15 6 3 -1.</_>
                <_>
                  3 15 3 3 2.</_></rects>
              <tilted>0</tilted></feature>
            <threshold>-0.0100792702287436</threshold>
            <left_val>0.4173206090927124</left_val>
            <right_val>-0.5160204172134399</right_val></_></_>
        <_>
          <!-- tree 2 -->
          <_>
            <!-- root node -->
            <feature>
              <rects>
                <_>
                  18 14 2 4 -1.</_>
                <_>
                  18 14 1 4 2.</_></rects>
              <tilted>1</tilted></feature>
            <threshold>-5.2155582234263420e-003</threshold>
            <left_val>0.2991341054439545</left_val>
            <right_val>-0.5451437830924988</right_val></_></_>
        <_>
          <!-- tree 3 -->
          <_>
            <!-- root node -->
            <feature>
              <rects>
                <_>
                  2 1 14 6 -1.</_>
                <_>
                  2 4 14 3 2.</_></rects>
              <tilted>0</tilted></feature>
            <threshold>-0.0946006476879120</threshold>
            <left_val>0.6022611260414124</left_val>
            <right_val>-0.2151708006858826</right_val></_></_>
        <_>
          <!-- tree 4 -->
          <_>
            <!-- root node -->
            <feature>
              <rects>
                <_>
                  4 13 11 6 -1.</_>
                <_>
                  4 15 11 2 3.</_></rects>
              <tilted>0</tilted></feature>
            <threshold>-0.1243084967136383</threshold>
            <left_val>0.6097921133041382</left_val>
            <right_val>-0.2738732099533081</right_val></_></_>
        <_>
          <!-- tree 5 -->
          <_>
            <!-- root node -->
            <feature>
              <rects>
                <_>
                  17 18 3 2 -1.</_>
                <_>
                  17 19 3 1 2.</_></rects>
              <tilted>0</tilted></feature>
            <threshold>-1.2906669871881604e-003</threshold>
            <left_val>-0.7727028727531433</left_val>
            <right_val>0.2166052013635635</right_val></_></_>
        <_>
          <!-- tree 6 -->
          <_>
            <!-- root node -->
            <feature>
              <rects>
                <_>
                  7 3 6 6 -1.</_>
                <_>
                  7 6 6 3 2.</_></rects>
              <tilted>0</tilted></feature>
            <threshold>0.0417060591280460</threshold>
            <left_val>-0.2351392954587936</left_val>
            <right_val>0.5098134875297546</right_val></_></_>
        <_>
          <!-- tree 7 -->
          <_>
            <!-- root node -->
            <feature>
              <rects>
                <_>
                  19 12 1 8 -1.</_>
                <_>
                  19 14 1 4 2.</_></rects>
              <tilted>0</tilted></feature>
            <threshold>-6.9244499318301678e-003</threshold>
            <left_val>-0.6446101069450378</left_val>
            <right_val>0.1701941937208176</right_val></_></_>
        <_>
          <!-- tree 8 -->
          <_>
            <!-- root node -->
            <feature>
              <rects>
                <_>
                  0 14 3 6 -1.</_>
                <_>
                  0 17 3 3 2.</_></rects>
              <tilted>0</tilted></feature>
            <threshold>8.2358230429235846e-005</threshold>
            <left_val>-0.5362250208854675</left_val>
            <right_val>0.1783220022916794</right_val></_></_>
        <_>
          <!-- tree 9 -->
          <_>
            <!-- root node -->
            <feature>
              <rects>
                <_>
                  5 14 7 4 -1.</_>
                <_>
                  5 15 7 2 2.</_></rects>
              <tilted>0</tilted></feature>
            <threshold>0.0103490604087710</threshold>
            <left_val>-0.2279088050127029</left_val>
            <right_val>0.4920488893985748</right_val></_></_>
        <_>
          <!-- tree 10 -->
          <_>
            <!-- root node -->
            <feature>
              <rects>
                <_>
                  7 11 4 6 -1.</_>
                <_>
                  7 14 4 3 2.</_></rects>
              <tilted>0</tilted></feature>
            <threshold>-9.6339397132396698e-003</threshold>
            <left_val>0.2112396061420441</left_val>
            <right_val>-0.6556885242462158</right_val></_></_>
        <_>
          <!-- tree 11 -->
          <_>
            <!-- root node -->
            <feature>
              <rects>
                <_>
                  7 0 4 4 -1.</_>
                <_>
                  8 0 2 4 2.</_></rects>
              <tilted>0</tilted></feature>
            <threshold>3.4948640968650579e-003</threshold>
            <left_val>0.0745689272880554</left_val>
            <right_val>-0.8204237818717957</right_val></_></_></trees>
      <stage_threshold>-1.4035660028457642</stage_threshold>
      <parent>2</parent>
      <next>-1</next></_>
    <_>
      <!-- stage 4 -->
      <trees>
        <_>
          <!-- tree 0 -->
          <_>
            <!-- root node -->
            <feature>
              <rects>
                <_>
                  0 16 20 3 -1.</_>
                <_>
                  5 16 10 3 2.</_></rects>
              <tilted>0</tilted></feature>
            <threshold>-0.0537928082048893</threshold>
            <left_val>0.5501564741134644</left_val>
            <right_val>-0.5893573760986328</right_val></_></_>
        <_>
          <!-- tree 1 -->
          <_>
            <!-- root node -->
            <feature>
              <rects>
                <_>
                  4 8 12 8 -1.</_>
                <_>
                  7 8 6 8 2.</_></rects>
              <tilted>0</tilted></feature>
            <threshold>0.0218520797789097</threshold>
            <left_val>-0.4704189002513886</left_val>
            <right_val>0.3851355016231537</right_val></_></_>
        <_>
          <!-- tree 2 -->
          <_>
            <!-- root node -->
            <feature>
              <rects>
                <_>
                  0 10 4 8 -1.</_>
                <_>
                  0 10 2 4 2.</_>
                <_>
                  2 14 2 4 2.</_></rects>
              <tilted>0</tilted></feature>
            <threshold>-4.8691499978303909e-003</threshold>
            <left_val>0.3057613968849182</left_val>
            <right_val>-0.5068992972373962</right_val></_></_>
        <_>
          <!-- tree 3 -->
          <_>
            <!-- root node -->
            <feature>
              <rects>
                <_>
                  1 0 18 6 -1.</_>
                <_>
                  1 3 18 3 2.</_></rects>
              <tilted>0</tilted></feature>
            <threshold>-0.0401641204953194</threshold>
            <left_val>0.3453787863254547</left_val>
            <right_val>-0.4226413071155548</right_val></_></_>
        <_>
          <!-- tree 4 -->
          <_>
            <!-- root node -->
            <feature>
              <rects>
                <_>
                  13 12 5 8 -1.</_>
                <_>
                  13 14 5 4 2.</_></rects>
              <tilted>0</tilted></feature>
            <threshold>-0.0191942602396011</threshold>
            <left_val>0.2517035007476807</left_val>
            <right_val>-0.5161079168319702</right_val></_></_>
        <_>
          <!-- tree 5 -->
          <_>
            <!-- root node -->
            <feature>
              <rects>
                <_>
                  19 12 1 8 -1.</_>
                <_>
                  19 14 1 4 2.</_></rects>
              <tilted>0</tilted></feature>
            <threshold>-8.6406003683805466e-003</threshold>
            <left_val>-0.8453909754753113</left_val>
            <right_val>0.0945232063531876</right_val></_></_>
        <_>
          <!-- tree 6 -->
          <_>
            <!-- root node -->
            <feature>
              <rects>
                <_>
                  3 11 15 6 -1.</_>
                <_>
                  3 13 15 2 3.</_></rects>
              <tilted>0</tilted></feature>
            <threshold>0.0185209996998310</threshold>
            <left_val>-0.3983747065067291</left_val>
            <right_val>0.2571133077144623</right_val></_></_>
        <_>
          <!-- tree 7 -->
          <_>
            <!-- root node -->
            <feature>
              <rects>
                <_>
                  4 15 10 2 -1.</_>
                <_>
                  4 16 10 1 2.</_></rects>
              <tilted>0</tilted></feature>
            <threshold>0.0174067392945290</threshold>
            <left_val>-0.1788025945425034</left_val>
            <right_val>0.6030771136283875</right_val></_></_>
        <_>
          <!-- tree 8 -->
          <_>
            <!-- root node -->
            <feature>
              <rects>
                <_>
                  4 11 1 4 -1.</_>
                <_>
                  3 12 1 2 2.</_></rects>
              <tilted>1</tilted></feature>
            <threshold>2.6663709431886673e-003</threshold>
            <left_val>0.2052969038486481</left_val>
            <right_val>-0.5895360112190247</right_val></_></_>
        <_>
          <!-- tree 9 -->
          <_>
            <!-- root node -->
            <feature>
              <rects>
                <_>
                  5 10 1 3 -1.</_>
                <_>
                  4 11 1 1 3.</_></rects>
              <tilted>1</tilted></feature>
            <threshold>2.4833760689944029e-003</threshold>
            <left_val>0.1282477974891663</left_val>
            <right_val>-0.6054788827896118</right_val></_></_></trees>
      <stage_threshold>-1.2310260534286499</stage_threshold>
      <parent>3</parent>
      <next>-1</next></_>
    <_>
      <!-- stage 5 -->
      <trees>
        <_>
          <!-- tree 0 -->
          <_>
            <!-- root node -->
            <feature>
              <rects>
                <_>
                  4 14 12 6 -1.</_>
                <_>
                  4 16 12 2 3.</_></rects>
              <tilted>0</tilted></feature>
            <threshold>-0.1116174012422562</threshold>
            <left_val>0.5140239000320435</left_val>
            <right_val>-0.4572865962982178</right_val></_></_>
        <_>
          <!-- tree 1 -->
          <_>
            <!-- root node -->
            <feature>
              <rects>
                <_>
                  4 0 14 6 -1.</_>
                <_>
                  4 3 14 3 2.</_></rects>
              <tilted>0</tilted></feature>
            <threshold>-0.0716976672410965</threshold>
            <left_val>0.4244605898857117</left_val>
            <right_val>-0.3229008913040161</right_val></_></_>
        <_>
          <!-- tree 2 -->
          <_>
            <!-- root node -->
            <feature>
              <rects>
                <_>
                  8 11 4 8 -1.</_>
                <_>
                  8 15 4 4 2.</_></rects>
              <tilted>0</tilted></feature>
            <threshold>-0.0373438000679016</threshold>
            <left_val>0.2564510107040405</left_val>
            <right_val>-0.5577083826065064</right_val></_></_>
        <_>
          <!-- tree 3 -->
          <_>
            <!-- root node -->
            <feature>
              <rects>
                <_>
                  16 14 4 2 -1.</_>
                <_>
                  16 14 2 2 2.</_></rects>
              <tilted>1</tilted></feature>
            <threshold>-9.7706681117415428e-003</threshold>
            <left_val>0.2721106112003326</left_val>
            <right_val>-0.4917060136795044</right_val></_></_>
        <_>
          <!-- tree 4 -->
          <_>
            <!-- root node -->
            <feature>
              <rects>
                <_>
                  7 15 6 5 -1.</_>
                <_>
                  9 15 2 5 3.</_></rects>
              <tilted>0</tilted></feature>
            <threshold>-0.0119703095406294</threshold>
            <left_val>-0.8037332296371460</left_val>
            <right_val>0.0704057067632675</right_val></_></_>
        <_>
          <!-- tree 5 -->
          <_>
            <!-- root node -->
            <feature>
              <rects>
                <_>
                  6 12 1 2 -1.</_>
                <_>
                  6 12 1 1 2.</_></rects>
              <tilted>1</tilted></feature>
            <threshold>4.5865821448387578e-005</threshold>
            <left_val>-0.5935176014900208</left_val>
            <right_val>0.1483681946992874</right_val></_></_>
        <_>
          <!-- tree 6 -->
          <_>
            <!-- root node -->
            <feature>
              <rects>
                <_>
                  7 18 6 2 -1.</_>
                <_>
                  9 18 2 2 3.</_></rects>
              <tilted>0</tilted></feature>
            <threshold>5.4535819217562675e-003</threshold>
            <left_val>0.0964354798197746</left_val>
            <right_val>-0.7280433177947998</right_val></_></_>
        <_>
          <!-- tree 7 -->
          <_>
            <!-- root node -->
            <feature>
              <rects>
                <_>
                  16 8 3 2 -1.</_>
                <_>
                  17 9 1 2 3.</_></rects>
              <tilted>1</tilted></feature>
            <threshold>-3.5758609883487225e-003</threshold>
            <left_val>-0.7491933703422546</left_val>
            <right_val>0.0890878587961197</right_val></_></_>
        <_>
          <!-- tree 8 -->
          <_>
            <!-- root node -->
            <feature>
              <rects>
                <_>
                  5 11 2 1 -1.</_>
                <_>
                  6 11 1 1 2.</_></rects>
              <tilted>0</tilted></feature>
            <threshold>2.1879019186599180e-005</threshold>
            <left_val>-0.3548541069030762</left_val>
            <right_val>0.2261074036359787</right_val></_></_>
        <_>
          <!-- tree 9 -->
          <_>
            <!-- root node -->
            <feature>
              <rects>
                <_>
                  17 7 3 3 -1.</_>
                <_>
                  18 8 1 3 3.</_></rects>
              <tilted>1</tilted></feature>
            <threshold>7.0680128410458565e-003</threshold>
            <left_val>0.0912660807371140</left_val>
            <right_val>-0.7427777051925659</right_val></_></_>
        <_>
          <!-- tree 10 -->
          <_>
            <!-- root node -->
            <feature>
              <rects>
                <_>
                  5 9 2 3 -1.</_>
                <_>
                  4 10 2 1 3.</_></rects>
              <tilted>1</tilted></feature>
            <threshold>-3.0578470323234797e-003</threshold>
            <left_val>-0.6696087121963501</left_val>
            <right_val>0.1049180999398232</right_val></_></_>
        <_>
          <!-- tree 11 -->
          <_>
            <!-- root node -->
            <feature>
              <rects>
                <_>
                  0 14 1 6 -1.</_>
                <_>
                  0 16 1 2 3.</_></rects>
              <tilted>0</tilted></feature>
            <threshold>-7.3974970728158951e-003</threshold>
            <left_val>-0.7393553853034973</left_val>
            <right_val>0.0989842116832733</right_val></_></_>
        <_>
          <!-- tree 12 -->
          <_>
            <!-- root node -->
            <feature>
              <rects>
                <_>
                  0 18 1 2 -1.</_>
                <_>
                  0 19 1 1 2.</_></rects>
              <tilted>0</tilted></feature>
            <threshold>-8.3975039888173342e-004</threshold>
            <left_val>-0.7445343136787415</left_val>
            <right_val>0.0873192474246025</right_val></_></_></trees>
      <stage_threshold>-1.3860599994659424</stage_threshold>
      <parent>4</parent>
      <next>-1</next></_>
    <_>
      <!-- stage 6 -->
      <trees>
        <_>
          <!-- tree 0 -->
          <_>
            <!-- root node -->
            <feature>
              <rects>
                <_>
                  14 13 4 3 -1.</_>
                <_>
                  15 14 2 3 2.</_></rects>
              <tilted>1</tilted></feature>
            <threshold>-0.0187154207378626</threshold>
            <left_val>0.4203648865222931</left_val>
            <right_val>-0.4380800127983093</right_val></_></_>
        <_>
          <!-- tree 1 -->
          <_>
            <!-- root node -->
            <feature>
              <rects>
                <_>
                  0 15 6 5 -1.</_>
                <_>
                  3 15 3 5 2.</_></rects>
              <tilted>0</tilted></feature>
            <threshold>-0.0170984193682671</threshold>
            <left_val>0.2958270013332367</left_val>
            <right_val>-0.4501473009586334</right_val></_></_>
        <_>
          <!-- tree 2 -->
          <_>
            <!-- root node -->
            <feature>
              <rects>
                <_>
                  5 1 9 9 -1.</_>
                <_>
                  5 4 9 3 3.</_></rects>
              <tilted>0</tilted></feature>
            <threshold>-0.1318995952606201</threshold>
            <left_val>0.5880764722824097</left_val>
            <right_val>-0.2125391066074371</right_val></_></_>
        <_>
          <!-- tree 3 -->
          <_>
            <!-- root node -->
            <feature>
              <rects>
                <_>
                  6 3 7 4 -1.</_>
                <_>
                  6 5 7 2 2.</_></rects>
              <tilted>0</tilted></feature>
            <threshold>0.0306713990867138</threshold>
            <left_val>-0.2023517042398453</left_val>
            <right_val>0.5435479283332825</right_val></_></_>
        <_>
          <!-- tree 4 -->
          <_>
            <!-- root node -->
            <feature>
              <rects>
                <_>
                  6 11 2 1 -1.</_>
                <_>
                  7 11 1 1 2.</_></rects>
              <tilted>0</tilted></feature>
            <threshold>4.5780991058563814e-005</threshold>
            <left_val>-0.3171123862266541</left_val>
            <right_val>0.3123934864997864</right_val></_></_>
        <_>
          <!-- tree 5 -->
          <_>
            <!-- root node -->
            <feature>
              <rects>
                <_>
                  7 8 2 3 -1.</_>
                <_>
                  6 9 2 1 3.</_></rects>
              <tilted>1</tilted></feature>
            <threshold>-2.3460099473595619e-003</threshold>
            <left_val>-0.7049956917762756</left_val>
            <right_val>0.1592852026224136</right_val></_></_>
        <_>
          <!-- tree 6 -->
          <_>
            <!-- root node -->
            <feature>
              <rects>
                <_>
                  0 12 19 4 -1.</_>
                <_>
                  0 13 19 2 2.</_></rects>
              <tilted>0</tilted></feature>
            <threshold>1.0058509651571512e-003</threshold>
            <left_val>-0.4794284999370575</left_val>
            <right_val>0.1515689939260483</right_val></_></_>
        <_>
          <!-- tree 7 -->
          <_>
            <!-- root node -->
            <feature>
              <rects>
                <_>
                  2 3 14 6 -1.</_>
                <_>
                  2 6 14 3 2.</_></rects>
              <tilted>0</tilted></feature>
            <threshold>-0.0997127592563629</threshold>
            <left_val>0.6458560824394226</left_val>
            <right_val>-0.1445208042860031</right_val></_></_>
        <_>
          <!-- tree 8 -->
          <_>
            <!-- root node -->
            <feature>
              <rects>
                <_>
                  14 18 6 2 -1.</_>
                <_>
                  14 19 6 1 2.</_></rects>
              <tilted>0</tilted></feature>
            <threshold>2.3259759473148733e-005</threshold>
            <left_val>-0.5516216158866882</left_val>
            <right_val>0.1736149936914444</right_val></_></_>
        <_>
          <!-- tree 9 -->
          <_>
            <!-- root node -->
            <feature>
              <rects>
                <_>
                  18 17 2 3 -1.</_>
                <_>
                  18 18 2 1 3.</_></rects>
              <tilted>0</tilted></feature>
            <threshold>-2.1586730144917965e-003</threshold>
            <left_val>-0.6399750113487244</left_val>
            <right_val>0.1274566054344177</right_val></_></_>
        <_>
          <!-- tree 10 -->
          <_>
            <!-- root node -->
            <feature>
              <rects>
                <_>
                  0 12 6 8 -1.</_>
                <_>
                  0 14 6 4 2.</_></rects>
              <tilted>0</tilted></feature>
            <threshold>-0.0181691590696573</threshold>
            <left_val>0.1636072993278503</left_val>
            <right_val>-0.4770588874816895</right_val></_></_>
        <_>
          <!-- tree 11 -->
          <_>
            <!-- root node -->
            <feature>
              <rects>
                <_>
                  19 14 1 6 -1.</_>
                <_>
                  19 16 1 2 3.</_></rects>
              <tilted>0</tilted></feature>
            <threshold>-6.4384331926703453e-003</threshold>
            <left_val>-0.7604458928108215</left_val>
            <right_val>0.0869456976652145</right_val></_></_>
        <_>
          <!-- tree 12 -->
          <_>
            <!-- root node -->
            <feature>
              <rects>
                <_>
                  3 14 13 3 -1.</_>
                <_>
                  3 15 13 1 3.</_></rects>
              <tilted>0</tilted></feature>
            <threshold>7.4221440590918064e-003</threshold>
            <left_val>-0.2228842973709106</left_val>
            <right_val>0.4090859889984131</right_val></_></_>
        <_>
          <!-- tree 13 -->
          <_>
            <!-- root node -->
            <feature>
              <rects>
                <_>
                  12 15 3 2 -1.</_>
                <_>
                  12 16 3 1 2.</_></rects>
              <tilted>0</tilted></feature>
            <threshold>5.8189379051327705e-003</threshold>
            <left_val>-0.1147461012005806</left_val>
            <right_val>0.6259105801582336</right_val></_></_>
        <_>
          <!-- tree 14 -->
          <_>
            <!-- root node -->
            <feature>
              <rects>
                <_>
                  12 12 2 1 -1.</_>
                <_>
                  13 12 1 1 2.</_></rects>
              <tilted>0</tilted></feature>
            <threshold>-1.9269500626251101e-005</threshold>
            <left_val>0.2548060119152069</left_val>
            <right_val>-0.2982454895973206</right_val></_></_>
        <_>
          <!-- tree 15 -->
          <_>
            <!-- root node -->
            <feature>
              <rects>
                <_>
                  10 0 4 13 -1.</_>
                <_>
                  11 0 2 13 2.</_></rects>
              <tilted>0</tilted></feature>
            <threshold>7.7458689920604229e-003</threshold>
            <left_val>0.0791364163160324</left_val>
            <right_val>-0.7210571169853210</right_val></_></_>
        <_>
          <!-- tree 16 -->
          <_>
            <!-- root node -->
            <feature>
              <rects>
                <_>
                  0 1 16 5 -1.</_>
                <_>
                  4 1 8 5 2.</_></rects>
              <tilted>0</tilted></feature>
            <threshold>-0.0149522200226784</threshold>
            <left_val>0.2809663116931915</left_val>
            <right_val>-0.2606303095817566</right_val></_></_></trees>
      <stage_threshold>-1.2598570585250854</stage_threshold>
      <parent>5</parent>
      <next>-1</next></_>
    <_>
      <!-- stage 7 -->
      <trees>
        <_>
          <!-- tree 0 -->
          <_>
            <!-- root node -->
            <feature>
              <rects>
                <_>
                  5 14 9 4 -1.</_>
                <_>
                  5 16 9 2 2.</_></rects>
              <tilted>0</tilted></feature>
            <threshold>-0.0634977519512177</threshold>
            <left_val>0.4603273868560791</left_val>
            <right_val>-0.3441807031631470</right_val></_></_>
        <_>
          <!-- tree 1 -->
          <_>
            <!-- root node -->
            <feature>
              <rects>
                <_>
                  14 14 6 4 -1.</_>
                <_>
                  17 14 3 4 2.</_></rects>
              <tilted>0</tilted></feature>
            <threshold>0.0147192897275090</threshold>
            <left_val>-0.4436514973640442</left_val>
            <right_val>0.2891466915607452</right_val></_></_>
        <_>
          <!-- tree 2 -->
          <_>
            <!-- root node -->
            <feature>
              <rects>
                <_>
                  2 14 4 2 -1.</_>
                <_>
                  2 14 4 1 2.</_></rects>
              <tilted>1</tilted></feature>
            <threshold>-5.8504007756710052e-003</threshold>
            <left_val>0.2091130018234253</left_val>
            <right_val>-0.5054293870925903</right_val></_></_>
        <_>
          <!-- tree 3 -->
          <_>
            <!-- root node -->
            <feature>
              <rects>
                <_>
                  19 18 1 2 -1.</_>
                <_>
                  19 19 1 1 2.</_></rects>
              <tilted>0</tilted></feature>
            <threshold>-5.8209092821925879e-004</threshold>
            <left_val>-0.7330870032310486</left_val>
            <right_val>0.1437634974718094</right_val></_></_>
        <_>
          <!-- tree 4 -->
          <_>
            <!-- root node -->
            <feature>
              <rects>
                <_>
                  4 9 12 4 -1.</_>
                <_>
                  8 9 4 4 3.</_></rects>
              <tilted>0</tilted></feature>
            <threshold>9.4602722674608231e-003</threshold>
            <left_val>-0.4172048866748810</left_val>
            <right_val>0.2221646010875702</right_val></_></_>
        <_>
          <!-- tree 5 -->
          <_>
            <!-- root node -->
            <feature>
              <rects>
                <_>
                  19 0 1 2 -1.</_>
                <_>
                  19 1 1 1 2.</_></rects>
              <tilted>0</tilted></feature>
            <threshold>-9.1180048184469342e-004</threshold>
            <left_val>-0.7172232270240784</left_val>
            <right_val>0.0859185010194778</right_val></_></_>
        <_>
          <!-- tree 6 -->
          <_>
            <!-- root node -->
            <feature>
              <rects>
                <_>
                  0 0 16 6 -1.</_>
                <_>
                  0 3 16 3 2.</_></rects>
              <tilted>0</tilted></feature>
            <threshold>-0.0619985200464725</threshold>
            <left_val>0.3008295893669128</left_val>
            <right_val>-0.3176240026950836</right_val></_></_>
        <_>
          <!-- tree 7 -->
          <_>
            <!-- root node -->
            <feature>
              <rects>
                <_>
                  5 14 10 4 -1.</_>
                <_>
                  5 15 10 2 2.</_></rects>
              <tilted>0</tilted></feature>
            <threshold>-0.0521394014358521</threshold>
            <left_val>0.5191779136657715</left_val>
            <right_val>-0.2106415927410126</right_val></_></_>
        <_>
          <!-- tree 8 -->
          <_>
            <!-- root node -->
            <feature>
              <rects>
                <_>
                  0 11 1 9 -1.</_>
                <_>
                  0 14 1 3 3.</_></rects>
              <tilted>0</tilted></feature>
            <threshold>-0.0150618897750974</threshold>
            <left_val>-0.6723102927207947</left_val>
            <right_val>0.1777472943067551</right_val></_></_>
        <_>
          <!-- tree 9 -->
          <_>
            <!-- root node -->
            <feature>
              <rects>
                <_>
                  19 0 1 4 -1.</_>
                <_>
                  19 1 1 2 2.</_></rects>
              <tilted>0</tilted></feature>
            <threshold>1.4500239631161094e-003</threshold>
            <left_val>0.1178532019257546</left_val>
            <right_val>-0.5697699189186096</right_val></_></_>
        <_>
          <!-- tree 10 -->
          <_>
            <!-- root node -->
            <feature>
              <rects>
                <_>
                  15 7 3 4 -1.</_>
                <_>
                  16 8 1 4 3.</_></rects>
              <tilted>1</tilted></feature>
            <threshold>-4.3793520890176296e-003</threshold>
            <left_val>-0.7360265851020813</left_val>
            <right_val>0.0913831368088722</right_val></_></_>
        <_>
          <!-- tree 11 -->
          <_>
            <!-- root node -->
            <feature>
              <rects>
                <_>
                  17 8 3 4 -1.</_>
                <_>
                  18 9 1 4 3.</_></rects>
              <tilted>1</tilted></feature>
            <threshold>-5.5160941556096077e-003</threshold>
            <left_val>-0.6780561208724976</left_val>
            <right_val>0.0618548095226288</right_val></_></_>
        <_>
          <!-- tree 12 -->
          <_>
            <!-- root node -->
            <feature>
              <rects>
                <_>
                  1 18 6 2 -1.</_>
                <_>
                  1 19 6 1 2.</_></rects>
              <tilted>0</tilted></feature>
            <threshold>1.0576379718258977e-003</threshold>
            <left_val>-0.5250427722930908</left_val>
            <right_val>0.1205084025859833</right_val></_></_>
        <_>
          <!-- tree 13 -->
          <_>
            <!-- root node -->
            <feature>
              <rects>
                <_>
                  0 15 1 4 -1.</_>
                <_>
                  0 17 1 2 2.</_></rects>
              <tilted>0</tilted></feature>
            <threshold>-3.0167798977345228e-003</threshold>
            <left_val>-0.7447258830070496</left_val>
            <right_val>0.0860790684819222</right_val></_></_>
        <_>
          <!-- tree 14 -->
          <_>
            <!-- root node -->
            <feature>
              <rects>
                <_>
                  3 6 4 3 -1.</_>
                <_>
                  2 7 4 1 3.</_></rects>
              <tilted>1</tilted></feature>
            <threshold>-4.4393739663064480e-003</threshold>
            <left_val>-0.6239963769912720</left_val>
            <right_val>0.0903412327170372</right_val></_></_></trees>
      <stage_threshold>-1.2903800010681152</stage_threshold>
      <parent>6</parent>
      <next>-1</next></_>
    <_>
      <!-- stage 8 -->
      <trees>
        <_>
          <!-- tree 0 -->
          <_>
            <!-- root node -->
            <feature>
              <rects>
                <_>
                  0 14 10 4 -1.</_>
                <_>
                  0 14 5 2 2.</_>
                <_>
                  5 16 5 2 2.</_></rects>
              <tilted>0</tilted></feature>
            <threshold>-0.0245145801454782</threshold>
            <left_val>0.3544790148735046</left_val>
            <right_val>-0.4223457872867584</right_val></_></_>
        <_>
          <!-- tree 1 -->
          <_>
            <!-- root node -->
            <feature>
              <rects>
                <_>
                  15 14 4 5 -1.</_>
                <_>
                  17 14 2 5 2.</_></rects>
              <tilted>0</tilted></feature>
            <threshold>6.5755997784435749e-003</threshold>
            <left_val>-0.4832384884357452</left_val>
            <right_val>0.2301187068223953</right_val></_></_>
        <_>
          <!-- tree 2 -->
          <_>
            <!-- root node -->
            <feature>
              <rects>
                <_>
                  4 1 9 8 -1.</_>
                <_>
                  4 3 9 4 2.</_></rects>
              <tilted>0</tilted></feature>
            <threshold>-0.0655546635389328</threshold>
            <left_val>0.3967222869396210</left_val>
            <right_val>-0.2418487966060638</right_val></_></_>
        <_>
          <!-- tree 3 -->
          <_>
            <!-- root node -->
            <feature>
              <rects>
                <_>
                  6 10 8 2 -1.</_>
                <_>
                  8 10 4 2 2.</_></rects>
              <tilted>0</tilted></feature>
            <threshold>9.0109091252088547e-004</threshold>
            <left_val>-0.3659290075302124</left_val>
            <right_val>0.2611322999000549</right_val></_></_>
        <_>
          <!-- tree 4 -->
          <_>
            <!-- root node -->
            <feature>
              <rects>
                <_>
                  0 14 2 3 -1.</_>
                <_>
                  1 14 1 3 2.</_></rects>
              <tilted>0</tilted></feature>
            <threshold>-4.7716239350847900e-004</threshold>
            <left_val>0.1783854067325592</left_val>
            <right_val>-0.4508698880672455</right_val></_></_>
        <_>
          <!-- tree 5 -->
          <_>
            <!-- root node -->
            <feature>
              <rects>
                <_>
                  0 8 18 9 -1.</_>
                <_>
                  0 11 18 3 3.</_></rects>
              <tilted>0</tilted></feature>
            <threshold>0.0248212795704603</threshold>
            <left_val>-0.6719886064529419</left_val>
            <right_val>0.0742271766066551</right_val></_></_>
        <_>
          <!-- tree 6 -->
          <_>
            <!-- root node -->
            <feature>
              <rects>
                <_>
                  16 15 4 4 -1.</_>
                <_>
                  16 17 4 2 2.</_></rects>
              <tilted>0</tilted></feature>
            <threshold>2.2304719313979149e-003</threshold>
            <left_val>-0.4385918974876404</left_val>
            <right_val>0.1878965944051743</right_val></_></_>
        <_>
          <!-- tree 7 -->
          <_>
            <!-- root node -->
            <feature>
              <rects>
                <_>
                  10 0 4 11 -1.</_>
                <_>
                  11 0 2 11 2.</_></rects>
              <tilted>0</tilted></feature>
            <threshold>-6.5196510404348373e-003</threshold>
            <left_val>-0.7294272780418396</left_val>
            <right_val>0.1006511971354485</right_val></_></_>
        <_>
          <!-- tree 8 -->
          <_>
            <!-- root node -->
            <feature>
              <rects>
                <_>
                  14 1 6 8 -1.</_>
                <_>
                  17 1 3 8 2.</_></rects>
              <tilted>0</tilted></feature>
            <threshold>0.0145676797255874</threshold>
            <left_val>-0.2145092934370041</left_val>
            <right_val>0.2925535142421722</right_val></_></_>
        <_>
          <!-- tree 9 -->
          <_>
            <!-- root node -->
            <feature>
              <rects>
                <_>
                  13 0 4 20 -1.</_>
                <_>
                  14 0 2 20 2.</_></rects>
              <tilted>0</tilted></feature>
            <threshold>-0.0165135990828276</threshold>
            <left_val>-0.7588670849800110</left_val>
            <right_val>0.0921249911189079</right_val></_></_>
        <_>
          <!-- tree 10 -->
          <_>
            <!-- root node -->
            <feature>
              <rects>
                <_>
                  1 13 19 4 -1.</_>
                <_>
                  1 14 19 2 2.</_></rects>
              <tilted>0</tilted></feature>
            <threshold>6.7026861943304539e-003</threshold>
            <left_val>-0.2361347973346710</left_val>
            <right_val>0.2784925103187561</right_val></_></_>
        <_>
          <!-- tree 11 -->
          <_>
            <!-- root node -->
            <feature>
              <rects>
                <_>
                  4 16 12 2 -1.</_>
                <_>
                  4 17 12 1 2.</_></rects>
              <tilted>0</tilted></feature>
            <threshold>0.0169939901679754</threshold>
            <left_val>-0.2105605006217957</left_val>
            <right_val>0.3447966873645783</right_val></_></_>
        <_>
          <!-- tree 12 -->
          <_>
            <!-- root node -->
            <feature>
              <rects>
                <_>
                  6 15 8 3 -1.</_>
                <_>
                  6 16 8 1 3.</_></rects>
              <tilted>0</tilted></feature>
            <threshold>6.1760270036756992e-003</threshold>
            <left_val>-0.1368927061557770</left_val>
            <right_val>0.5916771888732910</right_val></_></_>
        <_>
          <!-- tree 13 -->
          <_>
            <!-- root node -->
            <feature>
              <rects>
                <_>
                  2 8 4 12 -1.</_>
                <_>
                  2 8 2 6 2.</_>
                <_>
                  4 14 2 6 2.</_></rects>
              <tilted>0</tilted></feature>
            <threshold>-2.2272509522736073e-004</threshold>
            <left_val>0.1501433998346329</left_val>
            <right_val>-0.4979794025421143</right_val></_></_>
        <_>
          <!-- tree 14 -->
          <_>
            <!-- root node -->
            <feature>
              <rects>
                <_>
                  0 1 4 9 -1.</_>
                <_>
                  2 1 2 9 2.</_></rects>
              <tilted>0</tilted></feature>
            <threshold>-4.3625230900943279e-003</threshold>
            <left_val>0.2465869933366776</left_val>
            <right_val>-0.2868489921092987</right_val></_></_>
        <_>
          <!-- tree 15 -->
          <_>
            <!-- root node -->
            <feature>
              <rects>
                <_>
                  0 16 15 4 -1.</_>
                <_>
                  0 18 15 2 2.</_></rects>
              <tilted>0</tilted></feature>
            <threshold>0.0318061895668507</threshold>
            <left_val>-0.4315145015716553</left_val>
            <right_val>0.1520082950592041</right_val></_></_>
        <_>
          <!-- tree 16 -->
          <_>
            <!-- root node -->
            <feature>
              <rects>
                <_>
                  14 11 2 1 -1.</_>
                <_>
                  14 11 1 1 2.</_></rects>
              <tilted>1</tilted></feature>
            <threshold>1.6628440062049776e-004</threshold>
            <left_val>-0.4053145051002502</left_val>
            <right_val>0.1561530977487564</right_val></_></_></trees>
      <stage_threshold>-1.3019740581512451</stage_threshold>
      <parent>7</parent>
      <next>-1</next></_>
    <_>
      <!-- stage 9 -->
      <trees>
        <_>
          <!-- tree 0 -->
          <_>
            <!-- root node -->
            <feature>
              <rects>
                <_>
                  8 11 3 8 -1.</_>
                <_>
                  8 15 3 4 2.</_></rects>
              <tilted>0</tilted></feature>
            <threshold>-0.0366531312465668</threshold>
            <left_val>0.2258854955434799</left_val>
            <right_val>-0.5878568291664124</right_val></_></_>
        <_>
          <!-- tree 1 -->
          <_>
            <!-- root node -->
            <feature>
              <rects>
                <_>
                  2 0 18 6 -1.</_>
                <_>
                  2 3 18 3 2.</_></rects>
              <tilted>0</tilted></feature>
            <threshold>-0.0249691605567932</threshold>
            <left_val>0.1959576010704041</left_val>
            <right_val>-0.4307661056518555</right_val></_></_>
        <_>
          <!-- tree 2 -->
          <_>
            <!-- root node -->
            <feature>
              <rects>
                <_>
                  9 15 9 4 -1.</_>
                <_>
                  12 15 3 4 3.</_></rects>
              <tilted>0</tilted></feature>
            <threshold>-9.5262899994850159e-003</threshold>
            <left_val>0.2532440125942230</left_val>
            <right_val>-0.3733884096145630</right_val></_></_>
        <_>
          <!-- tree 3 -->
          <_>
            <!-- root node -->
            <feature>
              <rects>
                <_>
                  0 14 4 3 -1.</_>
                <_>
                  2 14 2 3 2.</_></rects>
              <tilted>0</tilted></feature>
            <threshold>-4.8224250786006451e-003</threshold>
            <left_val>0.2252696007490158</left_val>
            <right_val>-0.3809478878974915</right_val></_></_>
        <_>
          <!-- tree 4 -->
          <_>
            <!-- root node -->
            <feature>
              <rects>
                <_>
                  19 13 1 6 -1.</_>
                <_>
                  19 16 1 3 2.</_></rects>
              <tilted>0</tilted></feature>
            <threshold>-4.6204309910535812e-003</threshold>
            <left_val>-0.7223147153854370</left_val>
            <right_val>0.1028546020388603</right_val></_></_>
        <_>
          <!-- tree 5 -->
          <_>
            <!-- root node -->
            <feature>
              <rects>
                <_>
                  19 11 1 8 -1.</_>
                <_>
                  19 13 1 4 2.</_></rects>
              <tilted>0</tilted></feature>
            <threshold>-8.0352406948804855e-003</threshold>
            <left_val>-0.7133855819702148</left_val>
            <right_val>0.0920975729823112</right_val></_></_>
        <_>
          <!-- tree 6 -->
          <_>
            <!-- root node -->
            <feature>
              <rects>
                <_>
                  14 12 6 8 -1.</_>
                <_>
                  14 14 6 4 2.</_></rects>
              <tilted>0</tilted></feature>
            <threshold>-0.0148989800363779</threshold>
            <left_val>0.1508719027042389</left_val>
            <right_val>-0.4889813959598541</right_val></_></_>
        <_>
          <!-- tree 7 -->
          <_>
            <!-- root node -->
            <feature>
              <rects>
                <_>
                  6 14 9 3 -1.</_>
                <_>
                  6 15 9 1 3.</_></rects>
              <tilted>0</tilted></feature>
            <threshold>5.1916898228228092e-003</threshold>
            <left_val>-0.2538431882858276</left_val>
            <right_val>0.2741656005382538</right_val></_></_>
        <_>
          <!-- tree 8 -->
          <_>
            <!-- root node -->
            <feature>
              <rects>
                <_>
                  0 12 1 8 -1.</_>
                <_>
                  0 16 1 4 2.</_></rects>
              <tilted>0</tilted></feature>
            <threshold>-7.4493121355772018e-003</threshold>
            <left_val>-0.8247364163398743</left_val>
            <right_val>0.0692667663097382</right_val></_></_>
        <_>
          <!-- tree 9 -->
          <_>
            <!-- root node -->
            <feature>
              <rects>
                <_>
                  6 15 6 5 -1.</_>
                <_>
                  8 15 2 5 3.</_></rects>
              <tilted>0</tilted></feature>
            <threshold>-0.0127775399014354</threshold>
            <left_val>-0.7640234827995300</left_val>
            <right_val>0.0743449926376343</right_val></_></_>
        <_>
          <!-- tree 10 -->
          <_>
            <!-- root node -->
            <feature>
              <rects>
                <_>
                  2 17 2 1 -1.</_>
                <_>
                  2 17 1 1 2.</_></rects>
              <tilted>1</tilted></feature>
            <threshold>1.7081629484891891e-003</threshold>
            <left_val>0.0893836468458176</left_val>
            <right_val>-0.6440861225128174</right_val></_></_>
        <_>
          <!-- tree 11 -->
          <_>
            <!-- root node -->
            <feature>
              <rects>
                <_>
                  8 8 4 12 -1.</_>
                <_>
                  8 8 2 6 2.</_>
                <_>
                  10 14 2 6 2.</_></rects>
              <tilted>0</tilted></feature>
            <threshold>-0.0136779695749283</threshold>
            <left_val>-0.7261828184127808</left_val>
            <right_val>0.0451412014663219</right_val></_></_>
        <_>
          <!-- tree 12 -->
          <_>
            <!-- root node -->
            <feature>
              <rects>
                <_>
                  17 3 3 8 -1.</_>
                <_>
                  18 4 1 8 3.</_></rects>
              <tilted>1</tilted></feature>
            <threshold>-7.3538920842111111e-003</threshold>
            <left_val>-0.6757457852363586</left_val>
            <right_val>0.0800400674343109</right_val></_></_>
        <_>
          <!-- tree 13 -->
          <_>
            <!-- root node -->
            <feature>
              <rects>
                <_>
                  16 2 4 7 -1.</_>
                <_>
                  18 2 2 7 2.</_></rects>
              <tilted>0</tilted></feature>
            <threshold>6.5051070414483547e-003</threshold>
            <left_val>-0.2380151003599167</left_val>
            <right_val>0.2889186143875122</right_val></_></_>
        <_>
          <!-- tree 14 -->
          <_>
            <!-- root node -->
            <feature>
              <rects>
                <_>
                  17 6 3 5 -1.</_>
                <_>
                  18 7 1 5 3.</_></rects>
              <tilted>1</tilted></feature>
            <threshold>-5.1422398537397385e-003</threshold>
            <left_val>-0.6350201964378357</left_val>
            <right_val>0.1232858970761299</right_val></_></_>
        <_>
          <!-- tree 15 -->
          <_>
            <!-- root node -->
            <feature>
              <rects>
                <_>
                  7 2 7 6 -1.</_>
                <_>
                  7 4 7 2 3.</_></rects>
              <tilted>0</tilted></feature>
            <threshold>0.0240027792751789</threshold>
            <left_val>-0.1628624051809311</left_val>
            <right_val>0.4857845008373261</right_val></_></_>
        <_>
          <!-- tree 16 -->
          <_>
            <!-- root node -->
            <feature>
              <rects>
                <_>
                  0 0 2 3 -1.</_>
                <_>
                  0 1 2 1 3.</_></rects>
              <tilted>0</tilted></feature>
            <threshold>-1.3158150250092149e-003</threshold>
            <left_val>-0.5597808957099915</left_val>
            <right_val>0.1393349021673203</right_val></_></_>
        <_>
          <!-- tree 17 -->
          <_>
            <!-- root node -->
            <feature>
              <rects>
                <_>
                  0 0 2 3 -1.</_>
                <_>
                  0 1 2 1 3.</_></rects>
              <tilted>0</tilted></feature>
            <threshold>2.0209739450365305e-003</threshold>
            <left_val>0.1009763032197952</left_val>
            <right_val>-0.5475643277168274</right_val></_></_>
        <_>
          <!-- tree 18 -->
          <_>
            <!-- root node -->
            <feature>
              <rects>
                <_>
                  7 4 8 8 -1.</_>
                <_>
                  7 6 8 4 2.</_></rects>
              <tilted>0</tilted></feature>
            <threshold>0.0240037906914949</threshold>
            <left_val>-0.1874781996011734</left_val>
            <right_val>0.3597725927829742</right_val></_></_></trees>
      <stage_threshold>-1.1561319828033447</stage_threshold>
      <parent>8</parent>
      <next>-1</next></_>
    <_>
      <!-- stage 10 -->
      <trees>
        <_>
          <!-- tree 0 -->
          <_>
            <!-- root node -->
            <feature>
              <rects>
                <_>
                  0 11 17 6 -1.</_>
                <_>
                  0 13 17 2 3.</_></rects>
              <tilted>0</tilted></feature>
            <threshold>0.0144017199054360</threshold>
            <left_val>-0.5514839291572571</left_val>
            <right_val>0.2001326978206635</right_val></_></_>
        <_>
          <!-- tree 1 -->
          <_>
            <!-- root node -->
            <feature>
              <rects>
                <_>
                  7 11 1 2 -1.</_>
                <_>
                  7 11 1 1 2.</_></rects>
              <tilted>1</tilted></feature>
            <threshold>5.9727830375777557e-005</threshold>
            <left_val>-0.5377951860427856</left_val>
            <right_val>0.1558748930692673</right_val></_></_>
        <_>
          <!-- tree 2 -->
          <_>
            <!-- root node -->
            <feature>
              <rects>
                <_>
                  11 18 7 2 -1.</_>
                <_>
                  11 19 7 1 2.</_></rects>
              <tilted>0</tilted></feature>
            <threshold>2.6596570387482643e-003</threshold>
            <left_val>-0.5446007847785950</left_val>
            <right_val>0.1702838987112045</right_val></_></_>
        <_>
          <!-- tree 3 -->
          <_>
            <!-- root node -->
            <feature>
              <rects>
                <_>
                  9 0 1 6 -1.</_>
                <_>
                  9 3 1 3 2.</_></rects>
              <tilted>0</tilted></feature>
            <threshold>-3.4743919968605042e-003</threshold>
            <left_val>0.2598760128021240</left_val>
            <right_val>-0.3324576914310455</right_val></_></_>
        <_>
          <!-- tree 4 -->
          <_>
            <!-- root node -->
            <feature>
              <rects>
                <_>
                  16 14 4 3 -1.</_>
                <_>
                  18 14 2 3 2.</_></rects>
              <tilted>0</tilted></feature>
            <threshold>5.0881779752671719e-003</threshold>
            <left_val>-0.3943335115909576</left_val>
            <right_val>0.2074671983718872</right_val></_></_>
        <_>
          <!-- tree 5 -->
          <_>
            <!-- root node -->
            <feature>
              <rects>
                <_>
                  17 17 1 2 -1.</_>
                <_>
                  17 17 1 1 2.</_></rects>
              <tilted>1</tilted></feature>
            <threshold>-4.3464610353112221e-003</threshold>
            <left_val>-0.6529746055603027</left_val>
            <right_val>0.1257665008306503</right_val></_></_>
        <_>
          <!-- tree 6 -->
          <_>
            <!-- root node -->
            <feature>
              <rects>
                <_>
                  1 13 2 7 -1.</_>
                <_>
                  2 13 1 7 2.</_></rects>
              <tilted>0</tilted></feature>
            <threshold>-1.5121069736778736e-003</threshold>
            <left_val>0.1468354016542435</left_val>
            <right_val>-0.4156470894813538</right_val></_></_>
        <_>
          <!-- tree 7 -->
          <_>
            <!-- root node -->
            <feature>
              <rects>
                <_>
                  11 10 1 8 -1.</_>
                <_>
                  11 14 1 4 2.</_></rects>
              <tilted>0</tilted></feature>
            <threshold>-5.1828371360898018e-003</threshold>
            <left_val>0.1095390990376473</left_val>
            <right_val>-0.6669127941131592</right_val></_></_>
        <_>
          <!-- tree 8 -->
          <_>
            <!-- root node -->
            <feature>
              <rects>
                <_>
                  4 9 3 3 -1.</_>
                <_>
                  3 10 3 1 3.</_></rects>
              <tilted>1</tilted></feature>
            <threshold>-5.1069948822259903e-003</threshold>
            <left_val>-0.6740229725837708</left_val>
            <right_val>0.0705706402659416</right_val></_></_>
        <_>
          <!-- tree 9 -->
          <_>
            <!-- root node -->
            <feature>
              <rects>
                <_>
                  5 9 1 3 -1.</_>
                <_>
                  4 10 1 1 3.</_></rects>
              <tilted>1</tilted></feature>
            <threshold>2.3158169351518154e-003</threshold>
            <left_val>0.0963088870048523</left_val>
            <right_val>-0.5544375777244568</right_val></_></_>
        <_>
          <!-- tree 10 -->
          <_>
            <!-- root node -->
            <feature>
              <rects>
                <_>
                  4 16 1 3 -1.</_>
                <_>
                  3 17 1 1 3.</_></rects>
              <tilted>1</tilted></feature>
            <threshold>7.2379400080535561e-005</threshold>
            <left_val>-0.3316355943679810</left_val>
            <right_val>0.1772210001945496</right_val></_></_>
        <_>
          <!-- tree 11 -->
          <_>
            <!-- root node -->
            <feature>
              <rects>
                <_>
                  0 18 5 2 -1.</_>
                <_>
                  0 19 5 1 2.</_></rects>
              <tilted>0</tilted></feature>
            <threshold>2.5830618687905371e-004</threshold>
            <left_val>-0.5108119845390320</left_val>
            <right_val>0.0793517604470253</right_val></_></_>
        <_>
          <!-- tree 12 -->
          <_>
            <!-- root node -->
            <feature>
              <rects>
                <_>
                  0 12 1 8 -1.</_>
                <_>
                  0 14 1 4 2.</_></rects>
              <tilted>0</tilted></feature>
            <threshold>-9.9555775523185730e-003</threshold>
            <left_val>-0.7394344210624695</left_val>
            <right_val>0.0787832736968994</right_val></_></_>
        <_>
          <!-- tree 13 -->
          <_>
            <!-- root node -->
            <feature>
              <rects>
                <_>
                  11 12 2 1 -1.</_>
                <_>
                  12 12 1 1 2.</_></rects>
              <tilted>0</tilted></feature>
            <threshold>-6.6921777033712715e-005</threshold>
            <left_val>0.1738387048244476</left_val>
            <right_val>-0.3040159046649933</right_val></_></_>
        <_>
          <!-- tree 14 -->
          <_>
            <!-- root node -->
            <feature>
              <rects>
                <_>
                  6 14 9 3 -1.</_>
                <_>
                  6 15 9 1 3.</_></rects>
              <tilted>0</tilted></feature>
            <threshold>0.0121098998934031</threshold>
            <left_val>-0.1476289927959442</left_val>
            <right_val>0.3424364924430847</right_val></_></_>
        <_>
          <!-- tree 15 -->
          <_>
            <!-- root node -->
            <feature>
              <rects>
                <_>
                  3 15 13 4 -1.</_>
                <_>
                  3 17 13 2 2.</_></rects>
              <tilted>0</tilted></feature>
            <threshold>0.0590833015739918</threshold>
            <left_val>-0.1939311027526856</left_val>
            <right_val>0.3592641949653626</right_val></_></_>
        <_>
          <!-- tree 16 -->
          <_>
            <!-- root node -->
            <feature>
              <rects>
                <_>
                  7 15 6 3 -1.</_>
                <_>
                  7 16 6 1 3.</_></rects>
              <tilted>0</tilted></feature>
            <threshold>6.9104940630495548e-003</threshold>
            <left_val>-0.1178883984684944</left_val>
            <right_val>0.5050256252288818</right_val></_></_>
        <_>
          <!-- tree 17 -->
          <_>
            <!-- root node -->
            <feature>
              <rects>
                <_>
                  18 14 2 6 -1.</_>
                <_>
                  18 16 2 2 3.</_></rects>
              <tilted>0</tilted></feature>
            <threshold>0.0108534200116992</threshold>
            <left_val>0.0995582193136215</left_val>
            <right_val>-0.6920499801635742</right_val></_></_>
        <_>
          <!-- tree 18 -->
          <_>
            <!-- root node -->
            <feature>
              <rects>
                <_>
                  3 2 10 6 -1.</_>
                <_>
                  3 5 10 3 2.</_></rects>
              <tilted>0</tilted></feature>
            <threshold>-0.0912519171833992</threshold>
            <left_val>0.4403834939002991</left_val>
            <right_val>-0.1328617036342621</right_val></_></_>
        <_>
          <!-- tree 19 -->
          <_>
            <!-- root node -->
            <feature>
              <rects>
                <_>
                  1 1 16 4 -1.</_>
                <_>
                  5 1 8 4 2.</_></rects>
              <tilted>0</tilted></feature>
            <threshold>-0.0127807203680277</threshold>
            <left_val>0.2606447935104370</left_val>
            <right_val>-0.2154441028833389</right_val></_></_>
        <_>
          <!-- tree 20 -->
          <_>
            <!-- root node -->
            <feature>
              <rects>
                <_>
                  6 10 14 10 -1.</_>
                <_>
                  6 10 7 5 2.</_>
                <_>
                  13 15 7 5 2.</_></rects>
              <tilted>0</tilted></feature>
            <threshold>0.0478880293667316</threshold>
            <left_val>-0.3928512036800385</left_val>
            <right_val>0.1450878977775574</right_val></_></_></trees>
      <stage_threshold>-1.1815400123596191</stage_threshold>
      <parent>9</parent>
      <next>-1</next></_>
    <_>
      <!-- stage 11 -->
      <trees>
        <_>
          <!-- tree 0 -->
          <_>
            <!-- root node -->
            <feature>
              <rects>
                <_>
                  10 14 10 4 -1.</_>
                <_>
                  10 14 5 2 2.</_>
                <_>
                  15 16 5 2 2.</_></rects>
              <tilted>0</tilted></feature>
            <threshold>0.0330508910119534</threshold>
            <left_val>-0.3157753050327301</left_val>
            <right_val>0.3374676108360291</right_val></_></_>
        <_>
          <!-- tree 1 -->
          <_>
            <!-- root node -->
            <feature>
              <rects>
                <_>
                  0 9 6 10 -1.</_>
                <_>
                  0 9 3 5 2.</_>
                <_>
                  3 14 3 5 2.</_></rects>
              <tilted>0</tilted></feature>
            <threshold>-0.0144489901140332</threshold>
            <left_val>0.1418146044015884</left_val>
            <right_val>-0.4968891143798828</right_val></_></_>
        <_>
          <!-- tree 2 -->
          <_>
            <!-- root node -->
            <feature>
              <rects>
                <_>
                  7 2 10 4 -1.</_>
                <_>
                  7 4 10 2 2.</_></rects>
              <tilted>0</tilted></feature>
            <threshold>-0.0443279705941677</threshold>
            <left_val>0.3553743064403534</left_val>
            <right_val>-0.1872843950986862</right_val></_></_>
        <_>
          <!-- tree 3 -->
          <_>
            <!-- root node -->
            <feature>
              <rects>
                <_>
                  8 3 6 4 -1.</_>
                <_>
                  8 5 6 2 2.</_></rects>
              <tilted>0</tilted></feature>
            <threshold>0.0263252705335617</threshold>
            <left_val>-0.1123505979776382</left_val>
            <right_val>0.4851844012737274</right_val></_></_>
        <_>
          <!-- tree 4 -->
          <_>
            <!-- root node -->
            <feature>
              <rects>
                <_>
                  0 3 2 15 -1.</_>
                <_>
                  1 3 1 15 2.</_></rects>
              <tilted>0</tilted></feature>
            <threshold>-3.5746879875659943e-003</threshold>
            <left_val>0.2293391972780228</left_val>
            <right_val>-0.2619904875755310</right_val></_></_>
        <_>
          <!-- tree 5 -->
          <_>
            <!-- root node -->
            <feature>
              <rects>
                <_>
                  3 2 9 3 -1.</_>
                <_>
                  2 3 9 1 3.</_></rects>
              <tilted>1</tilted></feature>
            <threshold>-8.6234426125884056e-003</threshold>
            <left_val>-0.7471675276756287</left_val>
            <right_val>0.0487511083483696</right_val></_></_>
        <_>
          <!-- tree 6 -->
          <_>
            <!-- root node -->
            <feature>
              <rects>
                <_>
                  6 1 7 6 -1.</_>
                <_>
                  6 3 7 2 3.</_></rects>
              <tilted>0</tilted></feature>
            <threshold>0.0176887400448322</threshold>
            <left_val>-0.1507457047700882</left_val>
            <right_val>0.4137110114097595</right_val></_></_>
        <_>
          <!-- tree 7 -->
          <_>
            <!-- root node -->
            <feature>
              <rects>
                <_>
                  12 6 6 12 -1.</_>
                <_>
                  14 6 2 12 3.</_></rects>
              <tilted>0</tilted></feature>
            <threshold>-2.2024069912731647e-003</threshold>
            <left_val>0.2048358023166657</left_val>
            <right_val>-0.3468540906906128</right_val></_></_>
        <_>
          <!-- tree 8 -->
          <_>
            <!-- root node -->
            <feature>
              <rects>
                <_>
                  0 16 7 4 -1.</_>
                <_>
                  0 18 7 2 2.</_></rects>
              <tilted>0</tilted></feature>
            <threshold>9.9310865625739098e-003</threshold>
            <left_val>-0.5258482098579407</left_val>
            <right_val>0.1083585023880005</right_val></_></_>
        <_>
          <!-- tree 9 -->
          <_>
            <!-- root node -->
            <feature>
              <rects>
                <_>
                  16 10 3 2 -1.</_>
                <_>
                  17 11 1 2 3.</_></rects>
              <tilted>1</tilted></feature>
            <threshold>-3.8420199416577816e-003</threshold>
            <left_val>-0.6098577976226807</left_val>
            <right_val>0.0775711163878441</right_val></_></_>
        <_>
          <!-- tree 10 -->
          <_>
            <!-- root node -->
            <feature>
              <rects>
                <_>
                  15 11 2 1 -1.</_>
                <_>
                  15 11 1 1 2.</_></rects>
              <tilted>1</tilted></feature>
            <threshold>4.9133948778035119e-005</threshold>
            <left_val>-0.4127000868320465</left_val>
            <right_val>0.1253094971179962</right_val></_></_>
        <_>
          <!-- tree 11 -->
          <_>
            <!-- root node -->
            <feature>
              <rects>
                <_>
                  1 12 19 4 -1.</_>
                <_>
                  1 13 19 2 2.</_></rects>
              <tilted>0</tilted></feature>
            <threshold>7.4574832979124039e-005</threshold>
            <left_val>-0.4606221020221710</left_val>
            <right_val>0.1372683942317963</right_val></_></_>
        <_>
          <!-- tree 12 -->
          <_>
            <!-- root node -->
            <feature>
              <rects>
                <_>
                  6 11 1 2 -1.</_>
                <_>
                  6 11 1 1 2.</_></rects>
              <tilted>1</tilted></feature>
            <threshold>4.9342179408995435e-005</threshold>
            <left_val>-0.4665757119655609</left_val>
            <right_val>0.1244712024927139</right_val></_></_>
        <_>
          <!-- tree 13 -->
          <_>
            <!-- root node -->
            <feature>
              <rects>
                <_>
                  11 0 4 20 -1.</_>
                <_>
                  12 0 2 20 2.</_></rects>
              <tilted>0</tilted></feature>
            <threshold>7.2294748388230801e-003</threshold>
            <left_val>0.0738805234432220</left_val>
            <right_val>-0.6132652759552002</right_val></_></_>
        <_>
          <!-- tree 14 -->
          <_>
            <!-- root node -->
            <feature>
              <rects>
                <_>
                  18 3 2 7 -1.</_>
                <_>
                  19 3 1 7 2.</_></rects>
              <tilted>0</tilted></feature>
            <threshold>1.1439389782026410e-003</threshold>
            <left_val>-0.2387458980083466</left_val>
            <right_val>0.2361171990633011</right_val></_></_>
        <_>
          <!-- tree 15 -->
          <_>
            <!-- root node -->
            <feature>
              <rects>
                <_>
                  0 1 6 12 -1.</_>
                <_>
                  2 1 2 12 3.</_></rects>
              <tilted>0</tilted></feature>
            <threshold>-0.0329222194850445</threshold>
            <left_val>-0.7260571718215942</left_val>
            <right_val>0.0906148999929428</right_val></_></_>
        <_>
          <!-- tree 16 -->
          <_>
            <!-- root node -->
            <feature>
              <rects>
                <_>
                  0 3 4 7 -1.</_>
                <_>
                  2 3 2 7 2.</_></rects>
              <tilted>0</tilted></feature>
            <threshold>-5.9772417880594730e-003</threshold>
            <left_val>0.2518883049488068</left_val>
            <right_val>-0.2389408051967621</right_val></_></_>
        <_>
          <!-- tree 17 -->
          <_>
            <!-- root node -->
            <feature>
              <rects>
                <_>
                  5 14 9 4 -1.</_>
                <_>
                  5 15 9 2 2.</_></rects>
              <tilted>0</tilted></feature>
            <threshold>0.0154864499345422</threshold>
            <left_val>-0.1151928976178169</left_val>
            <right_val>0.4884886145591736</right_val></_></_>
        <_>
          <!-- tree 18 -->
          <_>
            <!-- root node -->
            <feature>
              <rects>
                <_>
                  12 16 3 2 -1.</_>
                <_>
                  12 17 3 1 2.</_></rects>
              <tilted>0</tilted></feature>
            <threshold>2.7979330625385046e-003</threshold>
            <left_val>-0.2449727952480316</left_val>
            <right_val>0.3036580979824066</right_val></_></_>
        <_>
          <!-- tree 19 -->
          <_>
            <!-- root node -->
            <feature>
              <rects>
                <_>
                  6 11 2 2 -1.</_>
                <_>
                  7 11 1 2 2.</_></rects>
              <tilted>0</tilted></feature>
            <threshold>6.7022818257100880e-005</threshold>
            <left_val>-0.3458021879196167</left_val>
            <right_val>0.1773725003004074</right_val></_></_>
        <_>
          <!-- tree 20 -->
          <_>
            <!-- root node -->
            <feature>
              <rects>
                <_>
                  12 18 8 2 -1.</_>
                <_>
                  12 19 8 1 2.</_></rects>
              <tilted>0</tilted></feature>
            <threshold>5.9180997777730227e-004</threshold>
            <left_val>-0.5717248916625977</left_val>
            <right_val>0.0971724763512611</right_val></_></_>
        <_>
          <!-- tree 21 -->
          <_>
            <!-- root node -->
            <feature>
              <rects>
                <_>
                  19 12 1 8 -1.</_>
                <_>
                  19 14 1 4 2.</_></rects>
              <tilted>0</tilted></feature>
            <threshold>-7.4807018972933292e-003</threshold>
            <left_val>-0.6753312945365906</left_val>
            <right_val>0.0529887191951275</right_val></_></_>
        <_>
          <!-- tree 22 -->
          <_>
            <!-- root node -->
            <feature>
              <rects>
                <_>
                  4 0 2 2 -1.</_>
                <_>
                  4 0 2 1 2.</_></rects>
              <tilted>1</tilted></feature>
            <threshold>4.9552651034900919e-005</threshold>
            <left_val>-0.2955934107303619</left_val>
            <right_val>0.1620998978614807</right_val></_></_>
        <_>
          <!-- tree 23 -->
          <_>
            <!-- root node -->
            <feature>
              <rects>
                <_>
                  3 11 12 4 -1.</_>
                <_>
                  9 11 6 4 2.</_></rects>
              <tilted>0</tilted></feature>
            <threshold>-0.0523894391953945</threshold>
            <left_val>0.5541970133781433</left_val>
            <right_val>-0.1107959970831871</right_val></_></_>
        <_>
          <!-- tree 24 -->
          <_>
            <!-- root node -->
            <feature>
              <rects>
                <_>
                  13 10 1 8 -1.</_>
                <_>
                  13 14 1 4 2.</_></rects>
              <tilted>0</tilted></feature>
            <threshold>-2.8322609141469002e-003</threshold>
            <left_val>0.1052305996417999</left_val>
            <right_val>-0.6007351875305176</right_val></_></_>
        <_>
          <!-- tree 25 -->
          <_>
            <!-- root node -->
            <feature>
              <rects>
                <_>
                  6 0 4 12 -1.</_>
                <_>
                  7 0 2 12 2.</_></rects>
              <tilted>0</tilted></feature>
            <threshold>7.0215938612818718e-003</threshold>
            <left_val>0.0628775581717491</left_val>
            <right_val>-0.6197295188903809</right_val></_></_></trees>
      <stage_threshold>-1.3063349723815918</stage_threshold>
      <parent>10</parent>
      <next>-1</next></_>
    <_>
      <!-- stage 12 -->
      <trees>
        <_>
          <!-- tree 0 -->
          <_>
            <!-- root node -->
            <feature>
              <rects>
                <_>
                  8 14 2 4 -1.</_>
                <_>
                  7 15 2 2 2.</_></rects>
              <tilted>1</tilted></feature>
            <threshold>-0.0165618695318699</threshold>
            <left_val>0.3219945132732391</left_val>
            <right_val>-0.2999984920024872</right_val></_></_>
        <_>
          <!-- tree 1 -->
          <_>
            <!-- root node -->
            <feature>
              <rects>
                <_>
                  4 12 12 2 -1.</_>
                <_>
                  7 12 6 2 2.</_></rects>
              <tilted>0</tilted></feature>
            <threshold>6.2002739869058132e-003</threshold>
            <left_val>-0.3570140898227692</left_val>
            <right_val>0.1849388033151627</right_val></_></_>
        <_>
          <!-- tree 2 -->
          <_>
            <!-- root node -->
            <feature>
              <rects>
                <_>
                  6 1 9 6 -1.</_>
                <_>
                  6 3 9 2 3.</_></rects>
              <tilted>0</tilted></feature>
            <threshold>-0.0628642365336418</threshold>
            <left_val>0.3963268995285034</left_val>
            <right_val>-0.1631986945867539</right_val></_></_>
        <_>
          <!-- tree 3 -->
          <_>
            <!-- root node -->
            <feature>
              <rects>
                <_>
                  4 3 13 4 -1.</_>
                <_>
                  4 5 13 2 2.</_></rects>
              <tilted>0</tilted></feature>
            <threshold>-0.0446409210562706</threshold>
            <left_val>0.3860622942447662</left_val>
            <right_val>-0.2493530958890915</right_val></_></_>
        <_>
          <!-- tree 4 -->
          <_>
            <!-- root node -->
            <feature>
              <rects>
                <_>
                  17 15 2 3 -1.</_>
                <_>
                  17 15 1 3 2.</_></rects>
              <tilted>1</tilted></feature>
            <threshold>-6.5105110406875610e-003</threshold>
            <left_val>0.2531875073909760</left_val>
            <right_val>-0.3444908857345581</right_val></_></_>
        <_>
          <!-- tree 5 -->
          <_>
            <!-- root node -->
            <feature>
              <rects>
                <_>
                  4 9 1 3 -1.</_>
                <_>
                  3 10 1 1 3.</_></rects>
              <tilted>1</tilted></feature>
            <threshold>2.9264630284160376e-003</threshold>
            <left_val>0.0117582399398088</left_val>
            <right_val>-0.7405887246131897</right_val></_></_>
        <_>
          <!-- tree 6 -->
          <_>
            <!-- root node -->
            <feature>
              <rects>
                <_>
                  2 10 4 2 -1.</_>
                <_>
                  2 10 4 1 2.</_></rects>
              <tilted>1</tilted></feature>
            <threshold>5.3480657516047359e-004</threshold>
            <left_val>-0.3400234878063202</left_val>
            <right_val>0.1874538064002991</right_val></_></_>
        <_>
          <!-- tree 7 -->
          <_>
            <!-- root node -->
            <feature>
              <rects>
                <_>
                  1 13 4 7 -1.</_>
                <_>
                  3 13 2 7 2.</_></rects>
              <tilted>0</tilted></feature>
            <threshold>-7.0246187970042229e-003</threshold>
            <left_val>0.1491740047931671</left_val>
            <right_val>-0.3446390926837921</right_val></_></_>
        <_>
          <!-- tree 8 -->
          <_>
            <!-- root node -->
            <feature>
              <rects>
                <_>
                  13 10 7 6 -1.</_>
                <_>
                  13 12 7 2 3.</_></rects>
              <tilted>0</tilted></feature>
            <threshold>-0.0152430804446340</threshold>
            <left_val>-0.6175140142440796</left_val>
            <right_val>0.0627525001764297</right_val></_></_>
        <_>
          <!-- tree 9 -->
          <_>
            <!-- root node -->
            <feature>
              <rects>
                <_>
                  19 13 1 4 -1.</_>
                <_>
                  19 15 1 2 2.</_></rects>
              <tilted>0</tilted></feature>
            <threshold>-3.0526949558407068e-003</threshold>
            <left_val>-0.6551480889320374</left_val>
            <right_val>0.0719198286533356</right_val></_></_>
        <_>
          <!-- tree 10 -->
          <_>
            <!-- root node -->
            <feature>
              <rects>
                <_>
                  1 1 16 6 -1.</_>
                <_>
                  5 1 8 6 2.</_></rects>
              <tilted>0</tilted></feature>
            <threshold>-8.4696728736162186e-003</threshold>
            <left_val>0.1792737990617752</left_val>
            <right_val>-0.2665365934371948</right_val></_></_>
        <_>
          <!-- tree 11 -->
          <_>
            <!-- root node -->
            <feature>
              <rects>
                <_>
                  5 0 6 11 -1.</_>
                <_>
                  7 0 2 11 3.</_></rects>
              <tilted>0</tilted></feature>
            <threshold>-0.0156554393470287</threshold>
            <left_val>-0.6859151721000671</left_val>
            <right_val>0.0844099223613739</right_val></_></_>
        <_>
          <!-- tree 12 -->
          <_>
            <!-- root node -->
            <feature>
              <rects>
                <_>
                  17 10 3 2 -1.</_>
                <_>
                  18 11 1 2 3.</_></rects>
              <tilted>1</tilted></feature>
            <threshold>4.9934550188481808e-003</threshold>
            <left_val>0.0580966696143150</left_val>
            <right_val>-0.6254267096519470</right_val></_></_>
        <_>
          <!-- tree 13 -->
          <_>
            <!-- root node -->
            <feature>
              <rects>
                <_>
                  0 14 3 6 -1.</_>
                <_>
                  0 17 3 3 2.</_></rects>
              <tilted>0</tilted></feature>
            <threshold>0.0420266687870026</threshold>
            <left_val>0.0626028925180435</left_val>
            <right_val>-0.6553276777267456</right_val></_></_>
        <_>
          <!-- tree 14 -->
          <_>
            <!-- root node -->
            <feature>
              <rects>
                <_>
                  12 6 4 14 -1.</_>
                <_>
                  13 6 2 14 2.</_></rects>
              <tilted>0</tilted></feature>
            <threshold>-0.0145833697170019</threshold>
            <left_val>-0.7018979787826538</left_val>
            <right_val>0.0546833314001560</right_val></_></_>
        <_>
          <!-- tree 15 -->
          <_>
            <!-- root node -->
            <feature>
              <rects>
                <_>
                  12 4 4 16 -1.</_>
                <_>
                  13 4 2 16 2.</_></rects>
              <tilted>0</tilted></feature>
            <threshold>7.0055928081274033e-003</threshold>
            <left_val>0.0621778890490532</left_val>
            <right_val>-0.6652017235755920</right_val></_></_>
        <_>
          <!-- tree 16 -->
          <_>
            <!-- root node -->
            <feature>
              <rects>
                <_>
                  6 9 8 5 -1.</_>
                <_>
                  10 9 4 5 2.</_></rects>
              <tilted>0</tilted></feature>
            <threshold>0.0200169607996941</threshold>
            <left_val>-0.1224735975265503</left_val>
            <right_val>0.4047951996326447</right_val></_></_>
        <_>
          <!-- tree 17 -->
          <_>
            <!-- root node -->
            <feature>
              <rects>
                <_>
                  8 10 6 3 -1.</_>
                <_>
                  11 10 3 3 2.</_></rects>
              <tilted>0</tilted></feature>
            <threshold>-4.7720028087496758e-003</threshold>
            <left_val>0.2381733059883118</left_val>
            <right_val>-0.2235426008701325</right_val></_></_>
        <_>
          <!-- tree 18 -->
          <_>
            <!-- root node -->
            <feature>
              <rects>
                <_>
                  7 15 8 3 -1.</_>
                <_>
                  7 16 8 1 3.</_></rects>
              <tilted>0</tilted></feature>
            <threshold>-0.0266071502119303</threshold>
            <left_val>0.3552187085151672</left_val>
            <right_val>-0.1444167047739029</right_val></_></_>
        <_>
          <!-- tree 19 -->
          <_>
            <!-- root node -->
            <feature>
              <rects>
                <_>
                  5 15 7 3 -1.</_>
                <_>
                  5 16 7 1 3.</_></rects>
              <tilted>0</tilted></feature>
            <threshold>7.8774578869342804e-003</threshold>
            <left_val>-0.1455568969249725</left_val>
            <right_val>0.5635156035423279</right_val></_></_>
        <_>
          <!-- tree 20 -->
          <_>
            <!-- root node -->
            <feature>
              <rects>
                <_>
                  5 14 8 6 -1.</_>
                <_>
                  7 14 4 6 2.</_></rects>
              <tilted>0</tilted></feature>
            <threshold>0.0291169602423906</threshold>
            <left_val>0.0703862905502319</left_val>
            <right_val>-0.8312504291534424</right_val></_></_>
        <_>
          <!-- tree 21 -->
          <_>
            <!-- root node -->
            <feature>
              <rects>
                <_>
                  0 14 1 4 -1.</_>
                <_>
                  0 16 1 2 2.</_></rects>
              <tilted>0</tilted></feature>
            <threshold>-3.4064890351146460e-003</threshold>
            <left_val>-0.6581001281738281</left_val>
            <right_val>0.0492913685739040</right_val></_></_>
        <_>
          <!-- tree 22 -->
          <_>
            <!-- root node -->
            <feature>
              <rects>
                <_>
                  4 0 2 3 -1.</_>
                <_>
                  3 1 2 1 3.</_></rects>
              <tilted>1</tilted></feature>
            <threshold>4.5729991979897022e-003</threshold>
            <left_val>0.0597933717072010</left_val>
            <right_val>-0.6204273104667664</right_val></_></_>
        <_>
          <!-- tree 23 -->
          <_>
            <!-- root node -->
            <feature>
              <rects>
                <_>
                  17 0 3 3 -1.</_>
                <_>
                  17 1 3 1 3.</_></rects>
              <tilted>0</tilted></feature>
            <threshold>-1.5252319863066077e-003</threshold>
            <left_val>-0.4876630902290344</left_val>
            <right_val>0.0776630714535713</right_val></_></_>
        <_>
          <!-- tree 24 -->
          <_>
            <!-- root node -->
            <feature>
              <rects>
                <_>
                  18 0 2 3 -1.</_>
                <_>
                  18 1 2 1 3.</_></rects>
              <tilted>0</tilted></feature>
            <threshold>1.6130380099639297e-003</threshold>
            <left_val>0.0956815332174301</left_val>
            <right_val>-0.4339742064476013</right_val></_></_></trees>
      <stage_threshold>-1.1331880092620850</stage_threshold>
      <parent>11</parent>
      <next>-1</next></_>
    <_>
      <!-- stage 13 -->
      <trees>
        <_>
          <!-- tree 0 -->
          <_>
            <!-- root node -->
            <feature>
              <rects>
                <_>
                  4 13 12 4 -1.</_>
                <_>
                  4 14 12 2 2.</_></rects>
              <tilted>0</tilted></feature>
            <threshold>8.7748365476727486e-003</threshold>
            <left_val>-0.3604406118392944</left_val>
            <right_val>0.2799173891544342</right_val></_></_>
        <_>
          <!-- tree 1 -->
          <_>
            <!-- root node -->
            <feature>
              <rects>
                <_>
                  5 2 7 6 -1.</_>
                <_>
                  5 4 7 2 3.</_></rects>
              <tilted>0</tilted></feature>
            <threshold>-0.0618360303342342</threshold>
            <left_val>0.4046820998191834</left_val>
            <right_val>-0.1505706012248993</right_val></_></_>
        <_>
          <!-- tree 2 -->
          <_>
            <!-- root node -->
            <feature>
              <rects>
                <_>
                  17 14 1 6 -1.</_>
                <_>
                  17 17 1 3 2.</_></rects>
              <tilted>0</tilted></feature>
            <threshold>1.5314780175685883e-003</threshold>
            <left_val>-0.4205766916275024</left_val>
            <right_val>0.1563190072774887</right_val></_></_>
        <_>
          <!-- tree 3 -->
          <_>
            <!-- root node -->
            <feature>
              <rects>
                <_>
                  8 12 2 6 -1.</_>
                <_>
                  6 14 2 2 3.</_></rects>
              <tilted>1</tilted></feature>
            <threshold>-0.0394747182726860</threshold>
            <left_val>0.2281914949417114</left_val>
            <right_val>-0.2682203054428101</right_val></_></_>
        <_>
          <!-- tree 4 -->
          <_>
            <!-- root node -->
            <feature>
              <rects>
                <_>
                  7 0 6 6 -1.</_>
                <_>
                  7 2 6 2 3.</_></rects>
              <tilted>0</tilted></feature>
            <threshold>-0.0488346703350544</threshold>
            <left_val>0.4514164030551910</left_val>
            <right_val>-0.1623118966817856</right_val></_></_>
        <_>
          <!-- tree 5 -->
          <_>
            <!-- root node -->
            <feature>
              <rects>
                <_>
                  0 0 14 6 -1.</_>
                <_>
                  0 2 14 2 3.</_></rects>
              <tilted>0</tilted></feature>
            <threshold>0.0191636309027672</threshold>
            <left_val>-0.2103658020496368</left_val>
